<?xml version="1.0" encoding="UTF-8" standalone="yes"?>
<PMML xmlns="http://www.dmg.org/PMML-4_2" version="4.2">
    <Header description="logistic regression">
        <Application name="Apache Spark MLlib" version="1.6.2"/>
        <Timestamp>2016-09-16T00:08:18</Timestamp>
    </Header>
    <DataDictionary numberOfFields="2">
        <DataField name="field_0" optype="continuous" dataType="double"/>
        <DataField name="target" optype="categorical" dataType="string"/>
    </DataDictionary>
    <RegressionModel modelName="logistic regression" functionName="classification" normalizationMethod="logit">
        <MiningSchema>
            <MiningField name="field_0" usageType="active"/>
            <MiningField name="target" usageType="target"/>
        </MiningSchema>
        <RegressionTable intercept="0.6026943187022095" targetCategory="1">
            <NumericPredictor name="field_0" coefficient="9.753457376144041"/>
        </RegressionTable>
        <RegressionTable intercept="-0.0" targetCategory="0"/>
    </RegressionModel>
</PMML>
